1.500000000000000000e+01 4.785555974399945140e+07 3.338790421900260728e+06 1.088846663303004345e+06 3.981005979369253619e+05 1.810157487780830124e+05 -1.103241360841588612e+05 6.646983630061511940e+04 -5.534200361793724733e+04 -4.938484478682421468e+04 -3.721159111311428569e+04 -2.462842551396859199e+04 1.657723188524399666e+04 -1.016956671389714211e+04 5.979283645811872702e+03 2.739259386654183800e+03 5.028312386878204052e+03
1.500000000000000000e+01 4.781804769671835005e+07 3.314023043368931860e+06 1.063649594227246242e+06 3.839934009993478539e+05 1.709445708077904710e+05 -1.024031284333725780e+05 6.027892930250994687e+04 -4.923724906098341307e+04 -4.223632050427601644e+04 -2.934116318095548195e+04 -1.666929330993126496e+04 8.072225272837198645e+03 -1.625412343860017018e+03 -2.670566509261031570e+03 -5.068883422931011410e+03 5.028312386878204052e+03
1.500000000000000000e+01 4.771585912533656508e+07 3.245053385895921849e+06 9.918156476227218518e+05 3.441702701491155894e+05 1.422119179075651627e+05 -8.009105912200441526e+04 4.265571532702494005e+04 -3.193480495033762418e+04 -2.226326967871674788e+04 -8.232192291502460648e+03 3.457312641225179505e+03 -1.106963490726386044e+04 1.375618494444342286e+04 -1.153015842949942271e+04 -1.790020017999553147e+03 5.028312386878204052e+03
1.500000000000000000e+01 4.751465888288545609e+07 3.105697051373282913e+06 8.451323846604552818e+05 2.633981819199055317e+05 8.429602903740850161e+04 -3.562648659497185872e+04 8.051305025199742886e+03 1.571646951080315603e+03 1.485036937443673196e+04 2.762523123165540892e+04 3.216820331453783365e+04 -2.912063492562357715e+04 1.572863992357919233e+04 1.969736262982152311e+03 2.376295206072461951e+03 5.028312386878204052e+03
1.500000000000000000e+01 4.717735513746066391e+07 2.864600341516117100e+06 5.923037763599795289e+05 1.254624339912908617e+05 -1.196143018068452511e+04 3.639997009280032216e+04 -4.482700701548194775e+04 5.066120362255005602e+04 6.360406259224466339e+04 6.393173068866569520e+04 4.488531682735069626e+04 -1.548092470400717684e+04 -1.090620645135699124e+04 4.523712743436712117e+03 -9.149625679366189388e+02 5.028312386878204052e+03
1.500000000000000000e+01 4.666437884365909547e+07 2.483714164125452749e+06 2.013394308209507435e+05 -8.306388842839002609e+04 -1.482451860088893736e+05 1.304549059773130139e+05 -1.055453268401769164e+05 9.899148847529516206e+04 9.610892086304417171e+04 6.114201663856318919e+04 7.198046209859753617e+03 2.553338856039120219e+04 -5.209735417224742378e+03 -3.023012083568282833e+03 2.060831761387814822e+02 5.028312386878204052e+03
1.500000000000000000e+01 4.592991946599147469e+07 1.915616764172808966e+06 -3.499383776126244338e+05 -3.608888658566661179e+05 -3.027423155165889766e+05 2.146930639692743716e+05 -1.385125828051969875e+05 1.043498027315600339e+05 6.151542490652484412e+04 -1.323381804722135712e+04 -4.677907500970771071e+04 3.420929852359523466e+03 6.578130434562161099e+03 9.926760059266782719e+02 -3.566343287764247805e+01 5.028312386878204052e+03
1.500000000000000000e+01 4.492028378956534714e+07 1.099813059837869601e+06 -1.057080772783581633e+06 -6.632173984494163888e+05 -4.029679014466348453e+05 2.159122385878537607e+05 -8.256900935667347221e+04 1.830583672869206566e+04 -5.317175223283623927e+04 -7.634536267444503028e+04 3.577587157845505317e+03 -1.167039630142476199e+04 -2.833447377330891413e+03 -2.117885723460251484e+02 5.340642610715722327e+00 5.028312386878204052e+03
1.500000000000000000e+01 4.357137878724730015e+07 -3.056582331804521527e+04 -1.843293771364985965e+06 -8.557699987434579525e+05 -3.183514790195251117e+05 4.696741958184876421e+04 7.939893431545999192e+04 -1.134200293663727934e+05 -1.005727928672682028e+05 1.981446731891086165e+04 1.869876675421009350e+04 6.144592384371816479e+03 7.178869685990816834e+02 3.614605163970110624e+01 1.327456657295760678e+00 5.028312386878204052e+03
1.500000000000000000e+01 4.181947645484409481e+07 -1.505565802389502525e+06 -2.494822070461134426e+06 -7.127982127667933237e+05 4.270735501862721867e+04 -2.302779890627998975e+05 1.693769012181629369e+05 -7.115470555578087806e+04 5.585766915566229000e+04 2.625948720139389479e+04 -1.212988253809694834e+04 -1.818355274249699505e+03 -1.357436276690299337e+02 -6.798009980741906988e-01 -2.022069867549476097e-01 5.028312386878204052e+03
1.500000000000000000e+01 3.966063223506120592e+07 -3.224125178255801555e+06 -2.646852937459358014e+06 -8.187883279216842493e+04 4.737508058122955845e+05 -2.339127593432879949e+05 -3.805080088250937115e+04 1.102576037520067184e+05 2.104694537133291306e+04 -2.161370772843072700e+04 4.100987317341227936e+03 3.761879092072369417e+02 2.375076382910696537e+01 -3.712448181328177554e+00 -2.750335068007689343e-01 5.028312386878204052e+03
1.500000000000000000e+01 3.721310419101094455e+07 -4.901531356090082787e+06 -1.959569736566301668e+06 7.582369298465382308e+05 4.203549413500080700e+05 1.662725747324363911e+05 -1.386369598026319582e+05 -2.743021675856510046e+04 -3.389950114644954738e+04 8.833961034231919257e+03 -1.041011043445250607e+03 -7.957332839264844893e+01 -8.605060069466144768e+00 4.512584054908629766e-03 3.257540039562702439e-01 5.028312386878204052e+03
1.500000000000000000e+01 3.469106348945800215e+07 -6.147331240746632218e+06 -4.116852694651657948e+05 1.066973981234711362e+06 -2.371605544880621019e+05 2.072517141525225597e+05 1.274062289834330440e+05 -2.313271671320268797e+04 2.051961337774476124e+04 -3.101728724188963497e+03 2.762976704866695172e+02 7.069669254203551745e+00 4.309843735117847352e+00 2.099936670360166069e+00 1.488900420260798885e-01 5.028312386878204052e+03
1.500000000000000000e+01 3.238789136837596446e+07 -6.663290049314564094e+06 1.459484692610182101e+06 4.089209242763005313e+05 -5.508891387633249396e+05 -2.183992180426185369e+05 -8.081760332487542655e+03 3.622446050844749698e+04 -1.037939849074836457e+04 1.111126947089482428e+03 -5.264781326052438715e+01 1.133556971529039181e+01 -9.424020030491400135e-01 -1.274570804053336337e+00 -3.539631548955323170e-01 5.028312386878204052e+03
1.500000000000000000e+01 3.051319987094773352e+07 -6.469310847735325806e+06 2.935928221659136005e+06 -7.030606926214548294e+05 8.091618544605473289e+04 -7.701862339801772032e+04 -9.407109011904314684e+04 -4.095427219923516532e+04 5.628333253279104611e+03 -3.124888658644973134e+02 6.914334806251078991e-01 2.054964554941061650e+01 -3.596900276931321194e+00 -2.245451750007119995e-01 1.366729301808149721e-01 5.028312386878204052e+03
